{
  "numberOfLayers": 3,
  "layerSizes": [
    784,
    30,
    10
  ],
  "biases": [
    [
      2.6306348694243837,
      -1.1411084314465594,
      -1.8976398504547454,
      -0.9092631204227718,
      -1.94140838520226,
      0.519539033380162,
      -2.6801490271129316,
      4.26541718903864,
      -2.2278665756400655,
      -1.5819098484695966,
      2.1907348697467963,
      0.5252730251884017,
      -0.5935580949753347,
      -0.9531232818402721,
      0.9683016934501338,
      1.1138434570964924,
      -3.4149045099442454,
      0.7021961632625116,
      0.7580601841879016,
      2.252402002785593,
      2.1022344054445705,
      7.485611103162798,
      3.024982503908198,
      -1.3659986672666629,
      0.533718433749894,
      0.4183414497661322,
      -1.1883242038614938,
      -2.6570808325882083,
      -2.213670943743929,
      -1.5838200018877833
    ],
    [
      0.06097511779745197,
      -1.1437237390333181,
      -2.2893325535869162,
      -0.7235000677957464,
      0.40476296677731405,
      -0.6353546180388235,
      1.3015682924249625,
      0.06531630653784687,
      -0.8285252205659954,
      -2.319670248688299
    ]
  ],
  "weights": [
    [
      [
        2.260726014557432,
        -0.3377566854963284,
        0.3582687900359482,
        0.8867780185287707,
        0.7710660229027321,
        0.15197201308618433,
        0.37122152119651053,
        -0.2388039649921247,
        -1.7392597429283234,
        -0.8833202601469095,
        -0.4199856211907488,
        -0.8222224060412344,
        -0.7650135168029809,
        -0.4414841245135358,
        0.4112471800739783,
        1.6638790954121208,
        -1.0195056436508387,
        -0.6670449089251526,
        1.9932099961354715,
        -0.8138364066892053,
        -1.0830999267596269,
        -0.42523702442402,
        1.5968437363259953,
        0.30427538881663435,
        -1.2971082045387845,
        0.3071797581867749,
        0.7263053634817153,
        1.2367917288425867,
        -0.581768863690979,
        0.15102820488453156,
        0.3644697646111529,
        -0.8119541353204612,
        0.33784392146743847,
        1.3457803960083485,
        -1.2476133911688039,
        -0.6486194364471439,
        -0.15004380578708998,
        -0.2438764766574239,
        0.043852598444719525,
        -0.0028753977614588417,
        0.26306922686073586,
        -0.02813900511267345,
        0.22731368051208972,
        -0.6406235443724517,
        0.9543337110182798,
        -0.3866454982325441,
        -0.18302435798167063,
        -0.7960701906029718,
        -0.8814603807979913,
        -1.8621305491944664,
        -0.5447486019032611,
        0.33044668930450705,
        0.4439762091531586,
        0.23366201949011206,
        -3.2735953089204703,
        0.49240643737005424,
        0.9254651810700651,
        -0.9539936183658805,
        -0.20320102072559362,
        -0.6507079066163561,
        0.8363542270185768,
        1.6852247455375429,
        1.6119600070066487,
        -0.5403840119506961,
        1.07326781386394,
        -0.7307956668950212,
        1.5381830374748844,
        -0.11910067547291393,
        0.12797726863944325,
        -0.738771128385051,
        1.5384611031963977,
        1.021847672395118,
        2.208873048525374,
        -0.8429055234419464,
        0.36711389906847774,
        -0.9480497165153494,
        0.7073459223655039,
        0.04039258987622847,
        -0.13897767050194995,
        -0.7674376526568247,
        -0.12118542799345436,
        -1.241115844273767,
        1.6439724729893943,
        -0.6664093384347078,
        0.32555047357108563,
        -0.6351267806805153,
        0.16727539298980232,
        -1.351372055559495,
        -0.6705932515280555,
        0.9316089491718714,
        -0.6531757808975549,
        -0.4315149257603421,
        -0.7189579407879747,
        1.7054800767669769,
        -0.7318664939655877,
        -2.5385087598374563,
        -0.5696478048940837,
        0.7020175551480361,
        -0.46545514801039073,
        0.9442062271368625,
        -0.3137769757812897,
        -1.5973860589467428,
        -0.5262409241358349,
        1.1350087403151714,
        -2.2847322193680446,
        -0.9189180834061137,
        0.20328282663096897,
        1.2775319024563563,
        -2.2674767035172376,
        -1.902607135663951,
        -0.9979781460980224,
        1.1835158644103845,
        0.07083019838511644,
        -1.2521919918899282,
        -1.056548258317766,
        -0.8327335307111193,
        -0.3393456796134395,
        0.7106181634658207,
        -0.7341807456786995,
        0.2391724545573119,
        -0.6520155009009703,
        -0.2192338431683291,
        -0.38861286759707714,
        0.6201600007145305,
        -0.346525173173562,
        2.0591858334411324,
        -0.6658291306107933,
        2.4704356214089334,
        0.23190357124560293,
        -1.071489792303519,
        0.9241373342013391,
        -1.8693114160294024,
        -1.3447567345179614,
        -0.24541448642139585,
        0.857666273884065,
        0.7751472300073474,
        0.668784371517049,
        -0.21825556867659737,
        -0.10882236622269795,
        1.2913876515447047,
        -1.6781411974474365,
        -0.36119877626749125,
        -2.1932973590100473,
        1.073322118864856,
        1.7123668926778208,
        -0.0027320805916531362,
        -1.2060366221583356,
        0.7749317971218115,
        -0.28272666395310325,
        -1.0424837094822896,
        -1.1189361434154423,
        -0.5343964587594906,
        0.9126269416238901,
        -0.6576419929808719,
        0.629855609258295,
        0.1954866839367159,
        1.7617705473608114,
        0.9581608209856264,
        0.019632753255836025,
        -0.6288468438376187,
        2.487778370992578,
        0.7622811785694172,
        -1.9816995338547045,
        1.0931469226808366,
        -0.38166920703292,
        -0.3653469518929144,
        -1.654436956279171,
        -0.20182814009957387,
        -0.05319342613650413,
        -0.25723554909058416,
        0.5160946319055381,
        2.1362457637816195,
        0.8978062428473084,
        -1.694854620532832,
        1.2610927927312412,
        0.7477955805767382,
        -0.19854552924804936,
        0.033794111482120553,
        1.8141500498176595,
        -0.6684754845865489,
        0.3329231390193466,
        -1.158556285473214,
        1.2345623252848839,
        -0.8631820982144844,
        0.607316537764057,
        -0.19542165109738296,
        0.6486257090163194,
        -0.8753186540897565,
        0.8502711669512372,
        -0.8193606115382179,
        0.6824961553031401,
        -0.21635775361993645,
        -0.35404647663627636,
        0.13483933983807478,
        -1.6931213519240316,
        -0.3112872054865009,
        -0.17959314665065598,
        0.14872005309542227,
        0.06962000873243149,
        -0.5037925086399867,
        0.4882293120230315,
        -0.9997391766815564,
        -0.5910612156517743,
        1.5606493014603222,
        1.8236178831245238,
        0.13801636853080554,
        1.605529045459593,
        -0.24732266369266243,
        1.2506382431026675,
        -0.8856386875652508,
        0.28734165445228277,
        0.5108824244479563,
        2.310878191694341,
        2.139963630736548,
        -0.22641924444986375,
        0.3345358141701106,
        -0.3040243391766889,
        1.4836677102048985,
        -1.3318936600392108,
        0.9276753855245576,
        -0.2981456535277058,
        0.2790849472627941,
        -1.321586667653151,
        -1.333414972163312,
        1.4540317772244649,
        0.5946396882282573,
        -1.388401064449618,
        -1.2370392801583026,
        -0.904658521742082,
        1.3445707930038089,
        -0.10755637126615863,
        0.7939258354674494,
        1.0495494831046088,
        0.5063646045210878,
        0.845294019321035,
        0.20758118205489332,
        -0.09004750246334191,
        -0.1910408166456816,
        0.329358390847149,
        0.6766469373229683,
        0.0898649384153195,
        -2.0747563469466135,
        1.3483178439542625,
        0.8898689457458058,
        0.4608622638692501,
        -1.062468341865547,
        -0.4032651972719029,
        -2.138297590613842,
        -1.4781042347374749,
        1.353560790997734,
        0.28187150492648205,
        -0.12436686295521526,
        1.6245391208599589,
        0.9128444435071384,
        1.7229313800874466,
        -0.2505379097816072,
        0.8245170598476157,
        0.15524307351484962,
        0.13519378268017707,
        -1.2275249660375591,
        -0.25077491414667114,
        -0.9505907640471029,
        -0.17040073074144124,
        0.7043438560074253,
        1.435352553959492,
        0.48986957484901233,
        -0.7784220215424386,
        -0.3845600127499185,
        -0.31492606071596513,
        -0.6866101120423685,
        -0.3580312149122452,
        1.4478585081445683,
        -0.7207086443709952,
        -0.4573902548142224,
        -0.5775284245707955,
        -1.058194677075815,
        0.7355400015927939,
        -0.626835866014659,
        0.7851448319228587,
        -0.8835154782746333,
        -1.0133375582820157,
        -0.6199456270106777,
        -0.7932019518261134,
        0.31706019711060096,
        -0.6253673931101538,
        -1.6425051744307542,
        -1.1373506426494262,
        0.7129151776272672,
        1.5543574705727503,
        0.10045366868748665,
        0.28791713654018597,
        1.1248436056609217,
        1.1259068687011713,
        -0.9193627910567018,
        1.0400134324083719,
        2.0066754271313036,
        0.7749131625557042,
        -0.6906231018800857,
        0.19288114613266286,
        -1.0647899122127593,
        0.42713235471335503,
        -1.0786098922455678,
        0.6518900679039804,
        0.03393447957568726,
        0.08700383999299025,
        -0.220471123978747,
        0.028771565983635065,
        -1.0837759612449736,
        -0.9823714093584477,
        0.216894627810423,
        0.583065074260345,
        0.1610209158020084,
        0.14951170913891582,
        0.217290748105848,
        0.6188716586306517,
        -0.9249595473622153,
        0.7822095239148737,
        0.6931884122321312,
        -0.23016191778430756,
        0.5769867552893442,
        0.2373225509100064,
        0.07041024372978176,
        0.6725487846844542,
        -0.49254650819574564,
        0.25101550243963466,
        0.21638714652875,
        1.068936846689349,
        0.4394612437610202,
        0.7436034500742809,
        -0.025495008964407387,
        0.8694186261889271,
        -0.45575137959239886,
        0.27291223773065537,
        0.48049373496378067,
        0.9485453937381556,
        1.0081394079629171,
        -0.5629334381352049,
        -0.8584914190390158,
        -0.615649945376818,
        -1.1498621093670378,
        1.1038582498536536,
        0.5589172618666312,
        -0.43715976122031275,
        -1.3293509660990657,
        2.000234622470114,
        -0.7917435631935481,
        -0.7815691990863927,
        -0.21131134549011038,
        0.8116293193562254,
        0.496313791569748,
        0.04260125463610521,
        0.861855228517704,
        -0.41790898077674415,
        1.741058803419369,
        0.9815560587333689,
        -0.6269700076952522,
        0.46804896476450475,
        -2.5967605152045525,
        0.31987853241220904,
        1.0335532692490335,
        -0.32776947829599606,
        0.6515218142558727,
        1.3329248119550792,
        -0.4336523342040228,
        0.9437528177668416,
        0.8615707018448429,
        0.29563303426966686,
        0.018869180493413042,
        -0.6818957285023031,
        0.4176230826322241,
        -0.5237778077947833,
        0.09112429185671514,
        -0.4834386304454062,
        0.2134282361163619,
        -0.09767791764877062,
        -0.08482786454169987,
        0.7653995740687615,
        0.04890595754262417,
        -0.8270287263413826,
        0.18004093427993256,
        1.479980185678479,
        -0.3316470379993655,
        0.22749908893228254,
        2.1280695832149963,
        -0.6698645622764898,
        0.07310705379572144,
        1.4639550569108588,
        0.565198178273124,
        -1.2692286909503971,
        0.6328636651282198,
        -0.5734837182933071,
        0.23891569575437266,
        -0.33803288738990905,
        -1.3334503253969292,
        -0.9197835225725989,
        -0.05033103145344063,
        -0.007087424672088084,
        -1.1516602380213348,
        0.13199262777220652,
        0.03519644524978917,
        -0.3781134194560642,
        2.10409227832193,
        -1.9374394818143112,
        2.1924108809248697,
        1.8071036189727154,
        1.8021906839360289,
        0.29898624646528515,
        -0.5048859568830985,
        1.408765764435986,
        0.03663993823572582,
        -1.2568011133652486,
        1.6741660681827542,
        0.21953282339011806,
        -1.0556424136555895,
        -1.9256738694820301,
        -1.126988157112217,
        0.11198867833000332,
        -1.0520209201779835,
        0.8619392938684227,
        -0.5431563424880346,
        0.7285417643280703,
        -0.5507396539349676,
        -0.9940577171574605,
        -2.093915775470857,
        0.37481042589937835,
        -0.14064752428902008,
        -1.484815600767918,
        0.45605330385923204,
        1.647011897516953,
        -0.09593825337878974,
        1.0369729269830128,
        0.2711391666641955,
        -0.19492386876458043,
        1.983546629279885,
        0.6437891204322942,
        -0.09135826623459918,
        0.5801154046168762,
        0.09854877968901889,
        0.2035177126552816,
        0.1435454580616482,
        -0.07573311717103144,
        1.0843539706667975,
        -0.8177358950139143,
        2.535996168438784,
        0.313636190950832,
        -1.05007945019117,
        -0.7186664330638075,
        2.2511290759235845,
        -0.29179488670306913,
        1.2699808009738813,
        0.21087779953904118,
        -0.3208674207374721,
        -1.2758939264662268,
        1.0561658731503196,
        2.4175313548210466,
        0.36359889573367976,
        -1.217876237121075,
        -1.1454132200616283,
        0.7239329508568407,
        1.4791561448451895,
        2.718156504498881,
        -1.0453050240091342,
        0.45367449444600516,
        1.191724366286415,
        0.20584273711722495,
        1.9902271788703054,
        0.3517693338152753,
        -0.20520565200398488,
        0.25300103424126,
        2.9908204532578746,
        -0.3816234425502182,
        -0.1812554179221223,
        1.8249845341323607,
        0.020256918519264887,
        -1.6880513265854487,
        0.812644306036777,
        0.5357989030314596,
        0.1520337595372521,
        1.6883087144158047,
        0.8142165254700808,
        1.6219586503110877,
        -0.1436109492403436,
        1.226567206387383,
        -0.42316450261103,
        -2.37815451053977,
        1.782195235291037,
        1.8314983081261293,
        -0.09446690351336957,
        -0.04091212640295806,
        -0.33146652948773087,
        1.336258565253734,
        1.9290318833316176,
        1.338297762869917,
        0.9197292404007718,
        1.0731836814801654,
        0.45947650969795745,
        0.3026683355083529,
        0.5970233486763128,
        0.6427292579211875,
        0.26475844523302866,
        -0.07272927662842171,
        1.7090418548638788,
        -0.7242078112332275,
        -1.444103878343281,
        1.1481917334197789,
        1.2675532742908466,
        -1.565937048962059,
        -0.17446974352272634,
        0.30415412513352996,
        -0.62774093361339,
        0.2976470567257762,
        -0.5618518611760009,
        -0.5569474175664874,
        1.0424015100218702,
        -0.2927815840993358,
        -0.35441078761903877,
        -0.2533696373776222,
        -0.7295947588299319,
        1.114997766441262,
        -0.3110490424391503,
        -0.7058130984315242,
        -1.495879372618457,
        1.2650427771862203,
        1.420715152269077,
        -1.107892733069034,
        -1.93031307009606,
        0.048546974620799724,
        -0.14696147682951963,
        -0.09423154767426965,
        0.5321210311041078,
        -0.04739769061061816,
        0.7304787098344215,
        -1.7824684129475992,
        -0.6350425804224518,
        1.0892366249242678,
        -0.8668493998965128,
        -0.24186337672957509,
        0.5584132641742192,
        0.6343585957845438,
        0.7386862189531063,
        0.7689682269398963,
        1.0876543471394025,
        -0.23919738385643127,
        -1.383595998478511,
        1.5918658896635125,
        1.641817075117534,
        1.15904974204513,
        0.6762666427012302,
        0.5476630338886113,
        -1.195051268173803,
        -0.6309637051887048,
        2.216935926080364,
        -0.19232089333430902,
        -0.13677325514993258,
        1.364863235941358,
        -1.1494975729578114,
        0.08465356753156644,
        0.3984153048230056,
        -1.2710909239054773,
        -0.3621609337103158,
        0.5860172971102011,
        0.042152677997347635,
        -0.9795329710543565,
        0.1458001575616081,
        0.030708658642278005,
        -0.9083196983556975,
        -0.009029325988372208,
        -1.493775806790137,
        0.2480933034526579,
        0.14542998025408804,
        1.5819600296894079,
        0.540932641826514,
        1.8265316578203186,
        -1.2399516778643358,
        -0.6577762495413911,
        -0.3545263624481934,
        0.3609442070023405,
        0.5985460277911789,
        -0.891156188862966,
        2.7860334798470334,
        0.07994378685356696,
        0.1606069620643535,
        -1.129867988834211,
        -0.5458895643465006,
        0.3127509001150704,
        1.0896292683680722,
        0.7056774970265101,
        -2.2440439916078265,
        -1.1081806259790372,
        -0.2452711408697894,
        0.023830639060214424,
        -0.5906670416322369,
        0.1842566540792089,
        -0.8023536623612519,
        -1.548898070700902,
        -0.8016859777127572,
        -0.3839907908738107,
        1.0735207549785608,
        1.0021634313977088,
        0.37175337945660536,
        0.18165025947797245,
        0.8393125280685487,
        1.0573277619880281,
        1.1715593408545688,
        -0.814854081996593,
        0.9471202333320804,
        1.452316841369639,
        -1.4037502335510599,
        1.151740491896011,
        -0.4680599431399676,
        0.2737274690463052,
        -1.376589051697996,
        -0.20050625080120152,
        -0.4304059741613616,
        0.7783185749189698,
        0.2333588373822692,
        -0.9426330770997728,
        0.3445092156334596,
        -1.9438918901941364,
        0.05889023857296747,
        1.8804896625331309,
        1.3436832620278825,
        -0.0666073281897793,
        0.96961855792625,
        0.43295525783375566,
        1.0479110067306092,
        0.1048063869388441,
        -1.031610162419465,
        0.6447924117433232,
        0.15969494734633094,
        -0.2784582035780003,
        1.3945798099446034,
        0.12231955443679042,
        -1.6574874610901227,
        -0.5015019157412036,
        -0.5770205148211979,
        0.03401283185342691,
        1.830491615914726,
        -0.17480313454849727,
        -0.7303300926464817,
        -2.0690457827569753,
        1.2405349076474226,
        -0.07966179231200672,
        -0.40989442736287773,
        -1.8391368980225684,
        -0.09157342585748636,
        -0.95453245705169,
        0.18344689456492266,
        -0.7611331566099474,
        0.9678217700208706,
        0.7438892175275298,
        0.4382365384168012,
        -0.21329427797361505,
        1.6019710810968593,
        1.2681673283140846,
        -0.11540334067693692,
        -0.14911335180056287,
        -1.222750416344787,
        0.7629912786463345,
        1.4382139031056473,
        0.3965909831243405,
        -0.48613003958592393,
        0.7861624496112506,
        1.342608375428505,
        -1.2091388595048562,
        -0.2610639996177646,
        -0.03384026469411823,
        0.15001060865282842,
        0.986357151631528,
        1.0875874358862583,
        -0.14681218063659868,
        0.4152386182294076,
        0.03978832331608488,
        -0.04636524144837768,
        0.9363999434778267,
        0.21478059388151302,
        0.5418959076790637,
        0.09711417625096022,
        -0.7417544873166323,
        -0.492978284011949,
        -0.18307594044468445,
        -1.3446638852928694,
        -0.4124561905867559,
        0.9331978093927052,
        -0.5362632063979009,
        1.1133294181691433,
        1.5504676682613912,
        -0.1392283228765796,
        -0.5178268287381198,
        0.1470109533125328,
        -0.2721372058736962,
        1.422048867357326,
        -0.8866288171255311,
        1.0223209063836634,
        1.2542119628083044,
        1.5376912712717594,
        -0.3968078785059969,
        1.9634390651993199,
        0.3264275531539738,
        1.7747710086301656,
        -0.45659280174666056,
        -0.19741597648721113,
        0.5794098632897587,
        -0.25359523022295555,
        -2.7258262491956833,
        -0.6977089286353721,
        -1.1821682277828902,
        -0.6144378495853746,
        1.4084119730837976,
        3.007431708646729,
        -0.16693167506992423,
        0.9848543820796166,
        -0.1416517565951592,
        0.7221864077722597,
        0.014715938816970827,
        2.5214022000877696,
        -1.0252938311289395,
        -0.17235109195541745,
        -0.08408388227251605,
        0.8845459840212229,
        -0.05149808652457794,
        2.1998860481168014,
        1.5539990700548343,
        -1.38964163845571,
        -2.564114374177142,
        1.426366114531257,
        0.16521148696064977,
        -0.31594596947054776,
        -0.10325740041590238,
        0.5708019497753372,
        -0.21504092072440117,
        -1.1496096905034068,
        -0.7652337517506362,
        -1.8250445053761617,
        -0.47753349595107863,
        -0.10472728701553852,
        0.6470753715170877,
        0.026178399020289816,
        0.15963216848883527,
        0.8254606389937407,
        -0.5882983217915309,
        1.6424665793888271,
        -1.179376968960753,
        -0.9132403007001428,
        -0.25734773897391877,
        0.10158799242839146,
        0.9584815535035943,
        -0.13683287262030508,
        0.42091434610174516,
        -0.4608517092672218,
        0.3118396844806616,
        -1.1049326222233165,
        -1.013284813506618,
        0.5589686596841531,
        0.7106624499461499,
        0.2486180782306393,
        1.842719471689198,
        2.7413150811966975,
        0.6597302688811095,
        -0.10354173623735961,
        0.26670329989290764,
        -1.4512116828466721,
        0.08249145104465158,
        0.4649608916913899,
        1.0834563310506264,
        -0.06525760659947762,
        -0.02998907696615253,
        -0.05163015289255816,
        0.9531884689729231,
        0.08874954391820943,
        -0.033742211360587505,
        1.1231532774115565,
        0.48476798595979453,
        0.192707051013199,
        0.3855220577152948,
        1.7645086901994076,
        0.26134744327982645,
        -1.0164064988378587,
        -0.39035451633576707,
        0.47050736983973235,
        -1.7751329553692574,
        -0.3354556982924569,
        -0.44804319357503053,
        1.3593154651347337
      ],
      [
        -1.5109192786523893,
        -2.768689306944176,
        0.4346810570121988,
        0.8945626365155325,
        -0.9864716190666497,
        -1.0809086384271642,
        0.11635497741016741,
        0.552390543978668,
        -1.1066133960554265,
        -1.8146141644437732,
        2.093366816047143,
        1.0090267743849397,
        -1.5343710252318847,
        0.3549385416511129,
        1.313584521510041,
        1.8906056812423426,
        0.9231808171313861,
        0.22553947079617792,
        0.3059108454490791,
        -0.8376003036229523,
        -0.3612874313110853,
        -0.25271930328104747,
        -0.6718631882329766,
        -0.44015105804697063,
        0.22479328434954593,
        0.02303594265464937,
        -1.4901430738388648,
        0.5757266902095941,
        -0.5256617693408313,
        -1.0920351032764763,
        0.8099274984904264,
        0.9031921955329865,
        -0.37652144536488935,
        0.38309997377131494,
        -0.505927634532243,
        -0.8359541486420445,
        -0.22564895125145742,
        1.5369679597617216,
        -0.6597067522246508,
        -1.765093505922491,
        -0.5321765332983692,
        0.14030616621735845,
        -1.5273901878818836,
        1.9393408257054199,
        0.7132215268478596,
        1.0369913735589151,
        -1.153670877818874,
        1.950576743148829,
        -0.278184978426324,
        -0.9611179311232276,
        -0.32046968699659256,
        -0.4690016071657698,
        0.8458375095444902,
        -0.6464781598951312,
        -1.544565796186422,
        -1.1033336055547187,
        0.41186994527267257,
        1.903308314273244,
        -0.35470957854684937,
        0.1650890151388523,
        -2.360904760301151,
        1.5404782928506549,
        0.3587351081849421,
        0.6734268276841066,
        0.3799218919253698,
        -0.5396939805850461,
        0.12056551895157706,
        0.9742913829551477,
        -0.478497333780097,
        -1.724365445463901,
        -0.14575469610335026,
        0.7922328498420729,
        -0.8753357846058054,
        -1.2437440939538518,
        2.4551320598647965,
        0.6023288118006666,
        -0.14229651136114524,
        0.5838480568661174,
        -0.2527396473652264,
        -1.6291526743666231,
        -0.6656553142653929,
        1.085029681412399,
        -2.19535797664999,
        -0.35884852781492205,
        0.5185762596326178,
        1.0167628959224984,
        1.2726815282571569,
        -0.8795318276535056,
        1.1094677572274918,
        -1.2606593493606288,
        0.5241692726362267,
        0.620504631666816,
        0.6947054659383523,
        -1.3119461594145565,
        -0.16111712607239043,
        -0.0102390054282508,
        -0.8174373588789293,
        -2.0655809509025405,
        -0.5042227831984858,
        -0.0016130597021254108,
        -0.3117282608841845,
        0.4756531729111255,
        -0.4433864630974853,
        -0.564909020833098,
        0.10770721164075223,
        0.8894377162083859,
        -0.33250628596463166,
        -0.04427055555556954,
        0.0541615704490513,
        -0.47455000316213736,
        -0.7223574165456008,
        0.01375525488792635,
        0.2661211273759185,
        0.9167091790209063,
        -0.7897854703948273,
        0.3435516174982254,
        0.7120864394262937,
        0.6511811118468774,
        -0.18480214219346905,
        -0.29002014560470324,
        0.7488390791283382,
        -0.012513872239115894,
        0.8301588148694037,
        0.4749957605010695,
        -0.08094618995213679,
        -0.7669397413676283,
        -0.3412671694986292,
        -0.47982993606939134,
        -2.477487534460984,
        -0.10222658897892273,
        -0.20566325303728406,
        -0.1765438925475966,
        -0.7653281826085315,
        0.280626043676689,
        0.7528494211784341,
        -0.32911059416709315,
        1.4524041624128976,
        1.2941776261806561,
        0.8683309058451478,
        -1.0070966206949994,
        -0.008176173861710104,
        -0.9058832577011784,
        1.2061178005173778,
        1.1488766860112418,
        -0.5618947889713848,
        -0.05870467600443788,
        0.3477599557114277,
        -0.17603357076794118,
        -0.5880185805284343,
        -0.3984624357481631,
        2.0471938242131196,
        -0.51106284281207,
        -1.6812964448314636,
        0.03088954806917033,
        -0.3790219493581586,
        -1.1107610149606657,
        -0.48839625506791573,
        -0.5174058947072293,
        0.06452725619726914,
        -0.5353658274054262,
        -0.36502764598883736,
        -1.5137538928154275,
        1.8451857078706295,
        -1.1312437675481999,
        0.13640607745377437,
        -2.408453554632381,
        0.9095289587580337,
        -0.6134353714059578,
        0.006156379213627078,
        -1.4754026192564478,
        -0.3493165795593315,
        -0.41903878765331853,
        -1.665523105456252,
        0.19962222040655286,
        -1.6954538246062953,
        -0.7267293348477656,
        -0.8337942502235343,
        -0.15055866119527886,
        -1.0703541289705463,
        -1.1855171478951194,
        -0.26662777240578567,
        -0.5989252224606262,
        0.20124941226707735,
        0.08673693276123569,
        0.6215071015067007,
        1.1434255866474061,
        0.9806942808819668,
        -0.8968920326574055,
        -0.2445375014829962,
        -0.6495513372865752,
        0.7358011796576085,
        -1.1908015255575402,
        -0.1821434459510721,
        0.14824589584018463,
        -1.5619720531765766,
        0.6331274121328704,
        1.0473899505681825,
        -0.0845170654347619,
        0.870684278044486,
        1.3489165859109022,
        -0.42352824277868284,
        0.28020858328798054,
        0.09932996614813495,
        -0.7530028722006159,
        0.12626453141172375,
        0.5142633117639019,
        -0.4730254329729313,
        1.1658859223853713,
        -0.9710624409041778,
        0.10550637677408974,
        0.3727398941042038,
        -1.0368806099722039,
        -1.4941718300582911,
        -1.2604365119738885,
        0.000958465990356023,
        0.09364130795743543,
        0.011187781789053707,
        1.6424079660531046,
        0.7277557834501754,
        1.577917349897835,
        -0.8029061900355635,
        -0.07234614903209756,
        -0.8514656761543872,
        0.00019436588974204057,
        0.5181292127384081,
        0.14763272644569383,
        0.9563316786072619,
        -0.39640420060762854,
        0.19529107659675665,
        -0.3808609072864018,
        2.2794227560308715,
        0.37068963024127766,
        1.9261653156591279,
        -0.7733895320123625,
        -2.0965604086106113,
        1.5738759779398166,
        0.057028637046913536,
        -1.2481467887066033,
        -1.976492464195528,
        -1.421248842917884,
        -1.3082470308320713,
        0.2294100686987897,
        0.33035448076560736,
        -1.7338487672106198,
        -1.5918585543859092,
        -1.7080375000497268,
        -0.4896670535405286,
        -0.30399112390935523,
        -0.8522996266583079,
        0.20914534301066917,
        -0.23604907060379166,
        -0.3298303346464768,
        -1.19896510044946,
        -0.302547655365807,
        0.3661161680148533,
        1.9610090507412525,
        -1.2612430325958313,
        0.29135111148133824,
        -1.0331200791802264,
        -0.3168779130724858,
        -0.4619255692557138,
        -1.3585163639635505,
        0.14292925832392206,
        0.19325855189174854,
        -0.44162875465896567,
        -0.5924955201940754,
        -0.5230204361817908,
        -0.14053757856539192,
        -1.9095570028507867,
        1.0320924440826722,
        -2.199848958971962,
        0.12181041410182704,
        0.4483930226556817,
        -0.46863067457352375,
        -1.1894753274372185,
        -1.6663707856912502,
        -0.3475028536152367,
        0.5055662807799731,
        -1.513934928671031,
        1.355911485100857,
        0.8379394873185644,
        0.5078428068883052,
        -0.9801380501205139,
        -0.7756944047247173,
        0.6424604279850996,
        0.6159104952584302,
        0.3499762406699774,
        2.2785055523312483,
        0.16174914631461812,
        -0.42017212599828424,
        0.2101513181946376,
        0.3300787969881778,
        0.17190559945264938,
        1.2842544951146853,
        -1.0755046876059977,
        1.57869706372231,
        -0.35124299060845565,
        -0.5560851796635364,
        0.7119226009072661,
        -0.6460508450509508,
        0.4096218362106828,
        -0.8032354106913062,
        0.7602181072033032,
        -0.11846734538468096,
        -0.3646285918247756,
        0.5054833141475481,
        -0.24681046231500992,
        -0.9577687251556981,
        -2.054270270040304,
        0.3141961305081387,
        -0.12454657757437859,
        0.5968841721546397,
        -0.5643127273162738,
        0.34792195678476223,
        -0.25004454008740834,
        -0.038726563488126114,
        0.3622132070071401,
        -1.4697653391255883,
        -1.1592081985822988,
        -2.0538824583649418,
        -0.16199704144320007,
        0.7369355211722515,
        1.2133440832590559,
        -1.4447070413208898,
        -1.884790991497506,
        0.21328866773294508,
        -2.750216878065,
        0.24076624114053838,
        -0.07561784928914775,
        -0.2978221683893065,
        0.17962954229831285,
        0.9366298464090407,
        0.8773026013923944,
        -0.7167659398924576,
        -0.9504380647909937,
        0.04726882052966966,
        0.410228783895713,
        0.5213720263245847,
        -1.365277195249246,
        -0.7105890027936682,
        -0.8944125914627475,
        -0.2666633680548749,
        -0.8002794136804404,
        -0.7557141607764547,
        -0.1483288480009884,
        -0.962745718998159,
        0.4307814623666954,
        0.7903884119595929,
        -1.3210056624372024,
        -1.669833384941982,
        0.1407994474982865,
        0.48897297226504816,
        -0.4747744258754163,
        -0.06455182444919594,
        -2.6164669788958954,
        -1.3961323481494041,
        -1.17148147203069,
        -0.996671184172115,
        -0.6716432389476755,
        -1.8134310175856452,
        0.41114392237041736,
        -0.7230519534018173,
        2.2431914833129523,
        -0.656246960457794,
        -0.8055338756287812,
        -1.5451430750384039,
        1.2498580297328423,
        -0.21944586387757742,
        -0.4622791490811558,
        0.683314343644328,
        0.5680340878600295,
        0.1552623944808449,
        -1.343721300625486,
        0.3733440424650615,
        -1.019850957280446,
        -1.8274366200060423,
        -1.430195337640357,
        -1.2572861976474308,
        0.3912624961677093,
        -1.0913790585922412,
        -1.49056472182364,
        -0.6963300916009003,
        -0.9861403635532551,
        0.18728966327842778,
        -0.8401874277622837,
        -0.46599732663347704,
        -1.4554292612723114,
        -0.49776228004854306,
        -1.4305089970295142,
        -1.0524451098883003,
        -0.2969709889651063,
        0.8785881504648512,
        -0.5636797245894688,
        -1.9031034001398655,
        0.32396830910916496,
        3.1289872738535247,
        -1.2399859658001513,
        -0.482460068433317,
        0.4024924371460017,
        -1.5361037588033724,
        -0.14227870323301037,
        1.2962094513177096,
        0.24054094479442154,
        0.47971601846806017,
        1.007943306412551,
        0.26567219311761225,
        -2.3218282628799627,
        -0.6614021097117184,
        -0.7814776052340581,
        -0.967890176951109,
        -0.5471686265556274,
        1.5811860933147812,
        -0.7709822728981501,
        0.23327723519928859,
        -1.7660132977598513,
        -1.6814487446876145,
        0.8381464023370263,
        0.7035734398352044,
        -0.3269279867137576,
        -0.14222700164292296,
        0.06758751455167994,
        0.015953514025844984,
        -0.21576808285448948,
        -0.9094237779969635,
        -0.7866270198056318,
        1.5536428378655902,
        1.0234167245508805,
        -0.5360423159271975,
        0.39765495810055124,
        -0.7124472177738913,
        -1.0200101642465538,
        0.1651973168295296,
        -0.5833524231317505,
        -0.8721395675335284,
        2.189516086333402,
        -1.3561683288797972,
        0.13026820074671863,
        -0.08202706998108991,
        0.3507363691867917,
        -0.5377714860906191,
        -0.47754785826602003,
        1.9519333351250667,
        -0.12255490473815181,
        0.03228026670946492,
        -1.0496375965248463,
        -0.6583071353836478,
        -1.2565626137065777,
        -1.3392379082810626,
        0.4879775980232015,
        1.2337614794604228,
        -1.190381914118498,
        0.8632792088780578,
        0.14004330143799334,
        -0.448116308560182,
        -0.4950832611557357,
        -1.0526932689997215,
        -2.4922993164044924,
        -0.3693882048219664,
        1.606727316806613,
        -0.9046152721963799,
        0.5567433471136721,
        1.2264167620980517,
        -1.7260493413681435,
        0.2416399373974223,
        -1.9607940409705586,
        0.3420559338730485,
        0.09255195599182041,
        -0.3447083531402309,
        -2.332471579734163,
        0.986679663692719,
        0.1854176004733366,
        1.5134369715963616,
        0.8303972160738582,
        -0.9125424520883647,
        -0.7946285713770485,
        -1.2972704648895468,
        0.5135333422339231,
        -0.39722389701654376,
        -2.364242378949534,
        0.8559791180985898,
        1.8719372125377316,
        0.8033566174754151,
        -0.2753677421005215,
        0.31011270177900957,
        0.8522065471544227,
        -1.434516301713918,
        -0.2401005606702515,
        0.3327128263817864,
        -1.361302962478273,
        -0.17635432802772186,
        0.3904865469575869,
        -1.3878818090289444,
        -0.8213774899243484,
        -0.12264137947324583,
        0.23274868435947618,
        -0.8082721053601275,
        -2.928210823384028,
        0.723638577147114,
        -1.3054398863082854,
        0.31598885644782854,
        0.06561118458086038,
        1.8425503120913473,
        -0.24440846680274525,
        0.6466192312582419,
        0.49485213458571314,
        -0.41597357499386156,
        0.5695095617221462,
        -1.4710619886578211,
        0.6721699493136891,
        1.6165352341773278,
        -1.7173676708006682,
        0.6814102664120375,
        1.6064049612849862,
        1.9233526858605374,
        -1.6512774253157543,
        -1.8311442163549816,
        0.10117856748472687,
        -0.8372303090386137,
        -1.4245992228800581,
        2.492361611281048,
        0.3821503828726234,
        0.802179919749484,
        0.6022925809226001,
        -1.080395137070716,
        -1.6998181160684471,
        -0.3340947650287795,
        0.61578127244664,
        0.009211630439693738,
        -0.4590171140167207,
        -0.7287953250736587,
        -1.51898332767333,
        0.2061328577868128,
        1.6789402052968874,
        0.9511974415595226,
        -0.2621178578372403,
        -1.1398775937592642,
        -1.3080093680547467,
        1.2520018838270444,
        -1.1630050998073886,
        0.4393872344697726,
        -1.1700670337297308,
        0.8756781417487484,
        0.034834308455360764,
        -0.5352900610436764,
        0.21157566612208079,
        0.7450897147511462,
        -0.21582211605142174,
        -1.3471472877901098,
        -0.07157735151868584,
        0.7246542294758915,
        -0.36135075968851893,
        -1.9910152125516287,
        -2.1082740194719256,
        -0.30522147564766294,
        -1.2592555329045736,
        -0.15878965795622021,
        0.3066808235938391,
        0.39721878953826034,
        -0.5826199696863591,
        0.9830073786150341,
        -0.7850109771504513,
        -0.7917042030016281,
        -0.5762383579161902,
        1.2952009715159902,
        0.2387720183304469,
        0.15508766620174982,
        -1.2359024511989374,
        0.8282755796503589,
        0.8274332822604447,
        -0.45326026156972615,
        -0.545938526821761,
        0.7439831377532341,
        2.1207186620191214,
        -0.1643711229980228,
        -0.712062039048269,
        1.3617934337828286,
        0.5465796152688612,
        1.6411006161683077,
        -1.7786764345177635,
        1.1208991962961097,
        0.6473416715441126,
        -0.5123495600892672,
        0.3918922285697804,
        0.20911738218654752,
        -1.711122368628364,
        -0.4046357646991013,
        0.14421931569786373,
        0.3018696901319673,
        -0.6585398043570183,
        -0.26739581200021323,
        1.1887911994275997,
        0.8520004347030216,
        -0.4490255953609724,
        1.5353455776362392,
        -2.08214083720296,
        0.7098844997320529,
        0.4650216365726613,
        0.49174260760359834,
        -0.36098873887722893,
        -0.7644981023899696,
        -0.7047815935879505,
        0.06536688220286166,
        -0.4985759178441523,
        -2.176368509458697,
        -0.37134069063236635,
        -0.47590773516682716,
        -0.10002905643354812,
        -2.206712146400224,
        -0.39795240362912915,
        1.6508509254661383,
        -0.24864225695213568,
        -0.5803053824171497,
        -0.6427819766856397,
        0.893696294940622,
        0.06961094683787282,
        0.3836366439087169,
        -0.6002940074851795,
        -0.5210561032785479,
        1.2293773820541487,
        2.0340082741581793,
        1.2336029440789016,
        -0.03070093415277681,
        0.17497311799992601,
        -1.2267030857096117,
        1.2879371601386647,
        -1.1795529044224944,
        -0.5474709810291029,
        -0.942117357515532,
        -1.1529045100800266,
        0.11207546530605816,
        0.5020542161150784,
        -0.4857266102346337,
        -0.09799958001932342,
        0.34826734345993365,
        -0.8612781018860884,
        0.29592714927910113,
        -0.44165034871613007,
        -0.10864511427661776,
        0.16817433660627526,
        1.0118205341484807,
        -0.5397455524193852,
        -0.8828935297676374,
        0.8480867765223753,
        0.15112868375541283,
        0.7181830257958126,
        2.3390944368149915,
        -0.011494214525034472,
        -0.5502144059366059,
        -0.9988150030506886,
        0.30858887772905275,
        0.977791069892884,
        -0.1810190708318495,
        -1.0478542971187745,
        -0.06816046064911134,
        -0.7757475786929465,
        0.3648584714939426,
        -1.0813762228145183,
        -0.783377217705876,
        0.21315989437052746,
        0.532913378901268,
        -0.16751950353313605,
        -0.5202674293938165,
        -0.9278132693071539,
        0.3670462490618826,
        1.4498075916668107,
        0.4724880994088709,
        0.26482297386222353,
        0.5419535957125271,
        1.216555161537378,
        -0.7292666813391578,
        0.7308842822243514,
        -0.947677489631595,
        -1.0003478898958378,
        0.04050620394566953,
        -1.0018624393528406,
        -0.5873682009167426,
        -0.5409967312800499,
        -0.3807759684883031,
        -0.3211610406465547,
        0.8214148401324067,
        0.2656886633442138,
        0.5704770765336488,
        -0.028376574069863263,
        1.9917000962609006,
        -0.31875205960744446,
        -0.6201507898810725,
        -1.0226398732964888,
        1.0172878947877018,
        -1.5182306432412758,
        -0.18780803264725365,
        -0.8382021379041917,
        0.30224198509512595,
        0.8204534443370668,
        -0.6800692395363749,
        0.1834521858698973,
        0.5185976010873692,
        -1.1970925858727643,
        -0.5444670923502842,
        -0.08110605282449507,
        0.9368826450703928,
        -2.3482271635564858,
        -0.21512458271706122,
        -0.8640173187209595,
        -0.8239489051129651,
        1.1614274743731605,
        -2.110109441579801,
        0.3420662343885137,
        -0.8083247162068876,
        -0.004259177603121222,
        -0.6075004481579246,
        -0.13652686996263247,
        1.980940139877059,
        0.327866824103675,
        -0.42875905714093904,
        -0.9332928755643443,
        -0.0773019020558364,
        0.8286221927886102,
        -0.9141007659575535,
        -2.269017232294178,
        -0.3472691124418171,
        0.1040100755253546,
        -0.06423943947501447,
        -0.741308574539675,
        -0.31250986500009503,
        0.232071565318416,
        -0.06788165321209082,
        -1.5834803990636048,
        0.17981211116066317,
        0.9620284556483605,
        -1.2377871244914616,
        -1.0267442305557948,
        -1.776675210426677,
        -0.1950767799693734,
        -0.19815267343138346,
        0.7164707943098875,
        -1.3663282840113566,
        0.6742343651082333,
        -0.376821169394096,
        0.20070768678216896,
        1.0422931088632932,
        -0.4717148861565071,
        2.037411348642315,
        -0.3482145575006166,
        -1.2463896453711356,
        0.0165479650086293,
        -0.7377251211918942,
        0.5813043780220326,
        -0.4706634029923464,
        1.6849376544651717,
        -0.24072241129763336,
        -1.2468405599794299,
        2.5402586221937584,
        0.48038203092161996,
        -0.8971667049815143,
        1.4081578609792946,
        0.03256700391985969,
        -0.8731976162732525,
        0.3044609357579134,
        1.051787248815007,
        1.2768720512121237,
        0.7135168226702135,
        -1.919550668875236,
        1.5198093937669679,
        0.2707886457626193,
        0.8133507738291792,
        0.8714405542060815,
        0.5675610477744728,
        0.3254822859979937,
        1.7146077504036872,
        -0.518081349956456,
        1.534401286993475,
        -1.5219152179002255,
        -0.7062838665642895,
        2.440659885382457,
        -0.6136281761598691,
        -0.4758800570423877,
        -2.065040082168039,
        -1.2206275329016165,
        -1.0871421904679617,
        -0.467099635144184,
        1.7721037374904502,
        0.17300739907157237,
        -0.20493881515019333,
        -0.5208297812709037
      ],
      [
        1.5115315810806464,
        0.5720570217419554,
        -0.4511792620001662,
        1.3138838660871441,
        2.422905630366623,
        -0.6613749420805646,
        -0.6722084722148778,
        -1.8829251918172103,
        -1.061672177444043,
        -1.1506070542638311,
        0.3096740492601204,
        -0.2780773188373949,
        -1.091834453935014,
        2.2643387172698253,
        -0.5404663914675346,
        1.5503200467996006,
        -1.785142683853213,
        -1.1015977406339033,
        0.3541865296043218,
        -0.7228541961173197,
        -0.8017946183243004,
        0.14035114264072598,
        -1.7527786045155234,
        -0.14742653243075665,
        1.3244685123157702,
        0.5386155139196948,
        -0.3370755645212323,
        1.8062521350940302,
        -0.7403879220800224,
        0.4695062469350588,
        0.9881362626203894,
        -0.5394663365204189,
        1.5778381512283426,
        -1.4433229215470964,
        0.5323571814628655,
        -0.2814513675401763,
        -0.8748480702715766,
        0.7095821087864904,
        0.2197940785086036,
        0.476678971510507,
        -0.8070001485035819,
        -0.5639963453996495,
        -0.14503123155512818,
        -0.8643297713411309,
        -0.8568587745511304,
        -1.2757329317675308,
        1.7979899491359022,
        -2.854290241699507,
        -1.1914262108461722,
        1.0423149380434167,
        -2.2366615973506376,
        0.8011940040649658,
        -0.24055061189336058,
        0.16894161418735618,
        -0.35211489993605677,
        -0.06732339242545797,
        0.08845778115672877,
        -0.6518715122864382,
        -1.234584488933499,
        -1.7634510000214345,
        0.16087070139545998,
        -0.740400502826773,
        0.012735229506543868,
        0.7168129633177329,
        0.06019438911490076,
        -1.4640048749745433,
        0.6248834956887901,
        0.47154193865852073,
        -0.8947567549312988,
        0.408415886359139,
        -0.7506255265153005,
        0.9323841762292958,
        0.021428672957999606,
        0.19469019432329612,
        0.5106054744693896,
        -0.8619296460342062,
        -0.39711851806709436,
        0.8436134936703613,
        -0.23878994465126574,
        -2.180182540583386,
        -1.2690327459417414,
        0.18292753179480098,
        0.5857957327560589,
        -0.1845308949973043,
        -0.02968965490473861,
        -0.5445666446973672,
        0.19799924512441386,
        0.5025986824037606,
        -0.9884713772983065,
        0.4907719607130724,
        0.5182021124480807,
        -0.26941867405079356,
        -0.8251939437069293,
        1.5123090336668636,
        0.5413242578210049,
        -0.8417856061257735,
        -1.5390197485421213,
        -0.8092722584284785,
        0.4056368966208224,
        -0.5578069987454438,
        -0.5537974992294253,
        0.33682741592504445,
        0.135941936220149,
        -2.519901603801294,
        -2.017427610772544,
        -1.955902986684433,
        0.7521161550918147,
        0.32003976343467194,
        -0.06448300279848283,
        -0.4107955259580015,
        0.307518609466024,
        2.4192883703527284,
        -1.564233007264857,
        1.9121545797834814,
        0.8521176400105532,
        0.46629554199376344,
        -1.492194220801133,
        1.7280152322188431,
        -1.0493638835097099,
        -0.16913969332186105,
        -0.9891314228960895,
        -1.9879171107726583,
        0.5534709953756514,
        -0.5207690456089803,
        -1.3315053098554472,
        0.910520458411622,
        -0.9522417974061017,
        -0.2864119540901573,
        -0.48724263655274497,
        -0.15693219062356126,
        -0.36495197903184573,
        0.16754716802476421,
        -1.0428338933221935,
        -0.47967075304764184,
        -1.352998830653744,
        -0.34412645275023257,
        1.033921727452213,
        -0.0551892484899851,
        0.9757425387488833,
        0.614020869023768,
        -0.3095257596798207,
        1.5474261586361815,
        0.9558418677847693,
        0.09643174636489892,
        -1.1450395607981654,
        0.3592298425557069,
        -1.0475807498915446,
        0.17411807181998698,
        -0.9081122791410491,
        0.012017443940052124,
        0.0023990771322403835,
        0.18035876803341402,
        -0.2968429277164746,
        -1.8880084619579764,
        -0.34809830388304025,
        0.13717286100673393,
        -0.3161461371030385,
        -0.5576517697403273,
        0.1456492142288388,
        0.3407968957596871,
        -0.0707130784653418,
        -0.9155472936422964,
        0.5707787986767063,
        0.6411949994271935,
        -1.2318528163436766,
        -0.11930817680573855,
        -1.9324697413703655,
        -1.275577611376013,
        0.8233297854283157,
        -1.1084993802723024,
        -0.18450524068792434,
        0.3522886757508732,
        -0.8240596065800972,
        0.015238374324306614,
        1.335832357386371,
        -0.4971939210845012,
        -0.6843787597485307,
        -1.4729302188273956,
        0.12780330918975094,
        -0.29270215669609173,
        1.1286184610918555,
        -1.1220279295606868,
        -0.0020376316133594082,
        -0.7613093293969921,
        0.6818954907818348,
        -0.8771199641021329,
        -0.15432729196366968,
        0.3782034236728569,
        -1.6827150406265752,
        -0.8674903460722259,
        0.3722512912142347,
        -1.8670793827210306,
        -0.9265949899530386,
        -0.10515519845025702,
        -1.1127590965033,
        -0.9830291494889819,
        -2.552855453029477,
        1.3666978349526882,
        -0.7319471029982634,
        1.5894438581515373,
        0.5233535206772064,
        1.1844169897551273,
        0.4792533200032262,
        -0.021797956180814877,
        -0.9772594017730079,
        0.3582553168789628,
        -0.7990438811329883,
        0.9776423568771299,
        -0.585909571465579,
        -0.5984111217773732,
        0.12665733519983444,
        -0.5004770383852453,
        -0.9915942894464136,
        -1.293500748599666,
        -0.19395326391686646,
        -1.3075468435745958,
        0.6513925576522493,
        0.06811900518840634,
        1.5106534840895771,
        -2.086850033203361,
        0.012297296912145712,
        0.42730771640276244,
        -0.7252672704744129,
        -0.9944792944751004,
        0.1091337805775343,
        -0.9579553206893139,
        0.30921718139766524,
        1.36550790066506,
        -1.8205305736611124,
        -0.5306676360749671,
        0.29018463864697186,
        0.8052784252882257,
        1.5374675412134904,
        -0.22460021551012346,
        -0.04535957211815351,
        -1.30140250026072,
        -2.8944810268807726,
        -0.07733875234164835,
        1.884726540884664,
        -0.7610708988691275,
        -0.5262175672827841,
        1.0639113637157052,
        0.06460190126013853,
        -0.3068872951333374,
        0.2815327425644939,
        -1.634672060618749,
        -0.4918668070899197,
        1.5047988269783308,
        0.4515308511006071,
        -0.42652253593822587,
        -0.1287962055371827,
        0.42360937154160666,
        1.5856940614115271,
        1.1847717272377192,
        -0.7212067394997272,
        -0.569698382117007,
        -1.4449646841314419,
        -0.14370741835479175,
        0.37283658226590155,
        0.22439440582437542,
        0.29341563196216197,
        -0.11109303777660909,
        -1.5355478494244998,
        -1.0788467861003035,
        -0.2916140482010848,
        -0.5108889388371938,
        0.8002583028727436,
        -0.8363906694445039,
        -0.32105818941790487,
        -1.0621081572907796,
        -2.5173724389478718,
        -0.6927763358534873,
        1.2861133117006476,
        -1.6914342378712446,
        1.8627613177021023,
        0.1442620691954159,
        0.6987886594996533,
        -0.04411171133787021,
        -1.6858377281169978,
        0.3503243360488393,
        0.04329007448040289,
        1.5501016864379118,
        -1.8297244313323942,
        1.145060180772155,
        -0.004059697838853645,
        -0.4844540424447488,
        -0.9475678946541755,
        2.5748364075538914,
        0.2862687803341778,
        -2.460729527863841,
        0.1194721289633592,
        0.9088340889727899,
        0.5148941331377846,
        -0.9489950042348582,
        -1.5233013386702792,
        -1.1229154258648104,
        -0.07863525901768591,
        0.4816477580736958,
        0.44342381903730776,
        -0.23138361599724983,
        -0.6051883078669009,
        -1.5141808679116604,
        1.988961065169211,
        -0.31231741713422645,
        -0.5509877950448627,
        -0.008956464136794691,
        0.01814091612365883,
        -0.29654767193186476,
        -0.007741035351804918,
        0.3788080948088671,
        -1.7223961415323619,
        1.0920588273405256,
        1.435331906427924,
        -0.03137198615374472,
        -1.1145308411669301,
        -0.5455931685852655,
        -0.42489101502995613,
        0.6794864923151243,
        0.2746830241525633,
        1.623653634623659,
        -1.6148450919832935,
        -1.3142086208129617,
        -0.33222179672513147,
        -0.34694079559465885,
        -0.9132109174095375,
        1.9284515757643954,
        -1.7103365823583203,
        1.0255482116539703,
        -0.0971016914837224,
        -1.4603839869964517,
        0.19847728763510544,
        0.14196230403485782,
        0.6597341671609317,
        -0.2820416172703115,
        0.37190049422651505,
        0.30856482074851727,
        1.9986149803338515,
        -0.45320034468133663,
        -0.38452308904016325,
        -1.7607800852869906,
        -0.2854250085068216,
        0.15928830320674864,
        1.050349136271976,
        1.5366986518416554,
        -1.7440204855673025,
        -1.6823817990535272,
        -0.08036603553305484,
        -1.1070027718776294,
        -0.19216104619339985,
        0.04377866233692304,
        0.7319379938243442,
        1.2040973002489836,
        0.4840654546696981,
        -1.2667599331028765,
        0.037951183892861284,
        0.15343623460077124,
        -0.9608625904336692,
        0.6408191725773106,
        0.18279625755257453,
        -0.3156551250098457,
        0.31855065899211243,
        1.907127107139964,
        -0.5428444958828493,
        0.04492844663667818,
        -0.3995473405837737,
        -0.8919757139491354,
        0.5957383283418445,
        -1.0188737177585117,
        -1.3014456130049803,
        1.4524819779596843,
        0.1304302744897732,
        -1.37483894865135,
        -0.8709175972684383,
        0.4432880047828194,
        0.3618897746500956,
        2.63171740883802,
        -1.0654437856607477,
        -1.1737355805636993,
        -1.8053787510870898,
        -1.3377135756063085,
        0.3543006270456293,
        -1.5470391325851025,
        -0.8144563439068929,
        -0.032999610633433436,
        -0.12986857700887128,
        0.30293137462700986,
        1.045517846121804,
        -2.0015455367776376,
        -0.6766882321452887,
        -0.32527392870542565,
        0.11838287040804843,
        0.5446526125486613,
        -0.2836509305159852,
        0.24198638314035828,
        -2.1691649619185553,
        1.2003036827527587,
        1.6024005477254404,
        0.7479869496254551,
        0.5485855332434207,
        2.0145004027380007,
        -1.4984872039002846,
        -0.2915891891971324,
        -3.1153721908213186,
        0.3012666994139759,
        -0.008865749162554361,
        -1.1264181681767145,
        -1.1832061019391449,
        -0.35748394882712214,
        -0.22261491872312786,
        -1.0838399409281634,
        -1.1218262332926183,
        1.4151238335368264,
        0.4126631451845445,
        -0.5572145804908792,
        0.20004102187734982,
        -1.1121120757833611,
        0.10864014462168885,
        -1.7250933250241065,
        -1.5264929615756175,
        -1.2335381909799177,
        1.364485993797503,
        1.0380242665656385,
        0.08774562041599208,
        1.668255439445443,
        -0.2897538379574165,
        -0.8403269724014133,
        -0.7507766979821306,
        -0.44822009996847545,
        -0.48289905358012486,
        0.4374098936300332,
        -1.4481952246637133,
        0.800542094353006,
        0.018739079320708157,
        0.9491774377172508,
        1.2361661891479632,
        -2.4340800492425516,
        0.10977610968248781,
        1.4900231323372464,
        -0.3082757618854121,
        -1.2539850348387171,
        -0.6225343468072242,
        -0.7942225465978783,
        1.767191457623888,
        -0.8689529714192042,
        -0.6207049909130665,
        -0.15593428458885267,
        1.2680051494651987,
        2.104634018054473,
        -0.9947138852994589,
        0.6794566150052839,
        -1.7603143109978552,
        -0.9712872103153972,
        1.774888420849222,
        -2.580298625753851,
        -1.3951317601325763,
        0.023987198710926624,
        1.5378442938603105,
        -0.9138878383341874,
        -2.2481839250289255,
        1.9562912112684576,
        0.24944970508532946,
        0.49129889471104976,
        0.7198310415803669,
        -0.7160813396616493,
        0.5329574595484216,
        -1.1669569978563248,
        0.1622611891867161,
        0.5331233791280648,
        -0.17750566882274635,
        0.7496406294151768,
        -1.9708536586794374,
        -1.4831355442107939,
        0.18301435557636553,
        -0.8532364711403844,
        -0.48750011164938173,
        0.7358811683496579,
        -0.15429694186048695,
        0.11162823595224135,
        -0.09052163696870179,
        0.11457007382446535,
        -0.14546163112781227,
        -0.5540098930189582,
        -0.2732748504431694,
        -0.7181630774915336,
        -1.4987834492598144,
        2.1328612688922366,
        -0.2918697116337892,
        -1.0466702657420335,
        -1.005295269715493,
        -0.9709195715841723,
        -2.108774750330997,
        -1.1023762269881343,
        0.1118703957786892,
        -0.5673892243797771,
        -0.3941591023751201,
        -0.5430966412920527,
        0.004773213291204894,
        -1.1714474554601015,
        -1.3388551200789331,
        0.3526309490973862,
        1.585880437952566,
        0.17520004550359436,
        -0.5968147951426528,
        -0.8272388573923065,
        1.0798986150251506,
        -0.12211010684029848,
        1.1176416329362628,
        -0.17964978688945873,
        -1.9432713080905153,
        -0.7413420662988273,
        -1.5487012879047408,
        1.1760884539230125,
        0.8732468673615953,
        0.29835359211499296,
        -0.6057921910153323,
        0.7075131680470672,
        -1.5276987070914243,
        -1.3993318415670966,
        -0.9047401566454333,
        -0.7476645301792497,
        -1.316834714073199,
        -1.3391769000220892,
        0.3989231827696831,
        0.5770851737826204,
        -1.347804442221788,
        0.7838653038492266,
        1.0365233712999984,
        0.0397568455875729,
        -0.15645712068541706,
        -0.31845979247875716,
        -1.7181486300570548,
        1.6151538366170985,
        -0.6927966710513425,
        -1.3567565832066582,
        0.8207249639585509,
        0.00928125873931014,
        0.5632635727525969,
        -0.9805692796185902,
        0.29586546445570194,
        1.8738225290047956,
        -1.9494172312291251,
        0.7633554560925878,
        0.8601291634186783,
        -0.8350139026460586,
        -0.5665859960102678,
        0.7767596243134751,
        0.7798786200053252,
        0.21263588352944557,
        -0.6117595019362991,
        -2.854717284589834,
        -1.1235168670082758,
        -2.044078277797678,
        0.40360640756496885,
        -0.4955040867734723,
        -1.8187188061984347,
        -0.26293385283767373,
        -1.6486577911681501,
        -0.9926021855703708,
        -0.5436024552336766,
        -1.2099984266552721,
        0.3639673717520753,
        -0.8552261879023407,
        0.84553178409759,
        0.8106277807833373,
        -1.2101408835647438,
        -0.3891034438505818,
        -0.9004901217766619,
        -0.5492743578306973,
        -0.14696136148983913,
        0.24651253750634028,
        -1.894685812755475,
        -0.7123223780216031,
        0.9973185579688982,
        -0.47844125566608925,
        -0.854063344341672,
        -0.7302785400637063,
        -0.1153196831534922,
        -0.03885077064540047,
        -1.1007029078153512,
        0.33034851793352754,
        0.8957742490767405,
        0.34465284639755417,
        -0.17369691979046414,
        -0.06647476420106214,
        1.3885903210304953,
        0.33261959331364727,
        -0.5911786749593135,
        -0.42104289898606134,
        -0.7005339106383396,
        -1.2199806291305713,
        0.3106044110872214,
        0.3360649834647712,
        -0.40823345555423773,
        -0.31088081240463594,
        -0.01275104423498799,
        -0.13475887950329524,
        -0.004244474150260931,
        -0.937779406955165,
        0.1148666483017631,
        0.7749584516971914,
        -0.7403046966649751,
        0.03188259094673241,
        -1.981362894358988,
        -0.8732218184551158,
        -1.2372613730901332,
        0.5944057011794072,
        -1.3721137275916009,
        -0.11640621396923104,
        -0.5227978555471455,
        0.05121611200033173,
        1.1056361227698885,
        -1.4757008305527,
        0.9099248992884922,
        1.1620222330620056,
        -0.08376753110565295,
        -1.7303651148319252,
        -0.5351628905389384,
        0.466558073006179,
        -0.006834466326543688,
        1.244988247746787,
        1.630171816127979,
        -0.24716887362892975,
        -0.4237847831082681,
        0.3544675344179193,
        -0.19997578897212348,
        0.7183437489191703,
        1.8055791563532315,
        1.6695966057819003,
        1.4157611395789436,
        0.931426083283074,
        -0.49763801818946907,
        -0.06261769479928612,
        -0.051059929781243046,
        -0.4198986545751394,
        0.881275330586508,
        1.3336327948658624,
        -0.6125321722586975,
        0.18940308312995505,
        -0.9279735400758815,
        0.44918686947553554,
        -0.6933947050366018,
        1.4583531483704621,
        0.01875799982425663,
        -0.4231396891993893,
        -0.16112485423119416,
        -1.1728265902773445,
        -1.6433501428301478,
        0.8375874405664647,
        1.196653984203824,
        -0.15216928778873948,
        -1.1726937526950414,
        0.30423704003508195,
        -0.05958196922892216,
        -1.102992835438877,
        0.5529644795267404,
        -1.197677511287172,
        -0.6349106484603864,
        -0.17658820754798277,
        -1.4363817326426171,
        -0.03048188687141207,
        0.4159712912036164,
        0.07994020642011095,
        -0.16934839702299326,
        -1.904840140123664,
        0.19554393286528252,
        -0.8299286734410098,
        -0.7427603946568925,
        -0.22658192391568951,
        -0.11287693357962653,
        0.5617552621096535,
        0.6002431920868403,
        -1.2810894658693837,
        -2.106639397636893,
        1.3918380728824367,
        0.5788430939943273,
        -0.05460104811887318,
        1.1239098872782425,
        0.0024759830627383416,
        -0.8952460165149151,
        -0.12362417544921384,
        1.6195697457542295,
        -1.5149711498378795,
        -0.24593203953643736,
        1.3428828025956172,
        0.1690628779511891,
        0.3432848542398648,
        -1.8206824753877406,
        0.11831055041348149,
        -0.2517464996913782,
        -0.15613611788236176,
        -0.10754794639295802,
        1.3002132044549786,
        -0.04884912247597293,
        0.34517617292218544,
        0.13929956041584035,
        0.45704254992397325,
        -1.2819655925950924,
        1.1650284053270419,
        1.1774721756342907,
        -1.2247592575179347,
        -0.5995809391901348,
        -0.5552365794863668,
        -1.030986092563993,
        -0.3587960648448191,
        0.049820512089263656,
        1.3254699908297185,
        0.02356147908723871,
        0.9391791795641843,
        -0.7959509527826525,
        -0.5234769959738282,
        0.5502349328925582,
        -1.0481140235538333,
        0.13384624786611765,
        0.2426819034543825,
        0.9689090881295763,
        -0.48520501331566307,
        0.32437171961108263,
        -0.8688903273547333,
        -0.31148571895019206,
        -0.905560795738666,
        0.48037142997239374,
        -1.5508625617522416,
        0.7238760231586212,
        -0.6488968531824155,
        -0.8456690713501718,
        0.8365965941515051,
        -0.7895261027270358,
        -1.825785173465337,
        -0.007052911243914096,
        -1.3601387487453651,
        -0.7305155171609404,
        -0.3855002321813086,
        0.04257044546111024,
        -0.6277313286961681,
        -0.1279886635646827,
        0.12324719106077016,
        0.029943883707999417,
        -0.7182449003144367,
        -0.7654622786092107,
        0.2139737846220979,
        -0.9089686946222463,
        -0.2659053509258394,
        -0.15097092629074324,
        0.6975594054425737,
        0.6363834617558084,
        -0.7594673081470776,
        -1.7888655063554193,
        -0.7433892822619443,
        -1.5983324575107631,
        0.47300018800768207,
        -1.1814384468976222,
        0.5464535289688943,
        0.9233536488873004,
        -0.25763506991320717,
        0.21107026652189265,
        2.093959603387646,
        -0.6630535812765757,
        -1.1414178675469335,
        -1.8382447329679006,
        -1.5811541607653525,
        -0.22692303784960968,
        0.73832759933574,
        0.08231699298058665,
        -0.08550559282595763,
        -1.1106158312633416,
        0.216333519580849,
        -0.49876942309899647,
        0.6535567146465522,
        0.6052204711486571,
        -1.0718569112976557,
        0.20687415576002846,
        0.16209164285110061,
        -0.8761695163161902,
        1.6448495737825866,
        -1.343979572279839,
        -0.41876324195321346,
        0.3180125997590446,
        -1.0676266227699658,
        -0.29647468800612914,
        -0.45327211116545557,
        0.8510732086597976,
        -0.36593986421124747,
        -0.30340257563570316,
        0.5510641929945187
      ],
      [
        0.454898825771922,
        0.5788619636642893,
        0.4939635884706557,
        0.04699019278219036,
        -0.160257863483529,
        -2.0229153067059413,
        0.24009121126956806,
        -0.5890573138873355,
        1.1123914541139224,
        0.4712847030800348,
        -0.19504182189827146,
        -1.5804081289703684,
        2.7925056588189556,
        -0.13004280392243492,
        -0.500196145565199,
        -1.2521574686508132,
        -1.3147882302807914,
        0.30172543150459213,
        0.16494771893438928,
        -1.8955544888655054,
        0.75663896977102,
        1.4547443500339692,
        -0.32905525515603207,
        0.34813683174783555,
        0.8930256243973358,
        -0.21208411723422663,
        -1.9603814173793856,
        0.34490030837771024,
        -1.1116341826091756,
        -0.5051848832634627,
        0.25549265862957204,
        1.8026160987374418,
        -0.03097297271409236,
        -0.6187853164371503,
        -0.5967326373842978,
        2.714949387963594,
        0.5110005909381246,
        1.2144476770711385,
        -0.0625245882196864,
        0.3736552863369341,
        0.26262794475760476,
        0.46752001263567844,
        -2.1896791102009914,
        0.3824296407458224,
        -0.4732928961407797,
        -0.696402401937424,
        -0.9884393881597395,
        0.7734129945325819,
        1.6689039338025804,
        0.10565478417962265,
        1.7446244660591936,
        1.4261764276928783,
        0.4133632623234202,
        -0.5297474240562491,
        0.19538179631907016,
        -0.16998971946598906,
        -0.21571244274766538,
        0.7471443384103353,
        1.196700755048188,
        0.9278765346606639,
        1.7308859432063344,
        -0.15496819413152,
        0.46109791358225877,
        1.9743010692264895,
        0.18734710436714422,
        0.25412189380115796,
        0.02901162537047032,
        0.49489914918802047,
        1.2930042166394593,
        -0.18570176592876952,
        1.9842551184888304,
        -0.6934961705461068,
        -0.09496223597289494,
        -1.4721825751690754,
        1.0150890783167366,
        0.36103426801330046,
        -0.5533586874524548,
        -0.07917111720562302,
        0.24427199802784685,
        0.9601203608300856,
        -0.09820372419201953,
        -0.3594519741212832,
        0.005685592566428123,
        -0.3186075736152633,
        -0.17744476314589783,
        0.24837248731625078,
        -0.49757876178560356,
        3.110825602731922,
        -0.9029746580051644,
        -0.6626653790459218,
        -0.39901644286036264,
        -0.0379858415828486,
        0.6521710009971958,
        0.5470726890356633,
        -1.9842893925601437,
        -1.8872810700726141,
        0.05181834585694655,
        0.11698781311931737,
        0.7209155766040583,
        -0.76907090184461,
        -2.069864361562552,
        -0.11113805390516923,
        -0.18243129643039185,
        0.9937543388407736,
        0.4586320418314884,
        -0.1302230898281952,
        0.6024382570445843,
        1.9354930182538324,
        -0.8125966336694154,
        0.8672283107935106,
        -0.04933414398020365,
        0.17222975335143334,
        1.4335064958066843,
        -0.904016306316565,
        -0.7789047983035616,
        -0.8922834277639523,
        2.0512137384198477,
        -0.5306169960282477,
        0.7763908454618141,
        -2.8334117381834516,
        1.15136419869325,
        0.19992831873000375,
        0.08929433206026945,
        -0.32875265019525396,
        0.9548229076121794,
        -0.8814095663664586,
        -0.7838861740541746,
        0.359677422800289,
        0.6825450556216591,
        -0.7752624784655431,
        0.4205849121256774,
        -2.190576789550548,
        -0.43662440997116886,
        0.08347380596810056,
        0.42807572571374986,
        0.1977969969580285,
        -0.8000332078737507,
        0.4299247093842185,
        -0.768503347477036,
        -0.9111027440154942,
        -0.7147252176360173,
        -0.1873527325642597,
        -0.16540861883168814,
        1.0364619437513627,
        -2.3020944362366897,
        0.36546212712865145,
        -0.6232573867221554,
        0.8335581567629101,
        -1.1083781859695512,
        -1.8861326262071674,
        -0.8489893607724611,
        0.7317157203753726,
        0.3871709160928318,
        -0.48735042612271573,
        -1.5499955453819763,
        1.4132539246395266,
        -0.24994701217356233,
        -1.3039429045116109,
        -1.331447069804098,
        -1.4438648329029717,
        0.7741139222152633,
        -1.0008190008489344,
        1.2106568568843616,
        0.8013129001203947,
        -0.3984311947071087,
        0.3780354730043674,
        0.04338624300595034,
        0.27591594094386396,
        0.7470599593984438,
        1.846993847964602,
        1.5084884769943239,
        -1.4884029137380972,
        -0.4761652300449981,
        1.341558711264589,
        1.9286410044341915,
        -0.6259292666971681,
        -0.630225734320907,
        0.6152421226699373,
        -0.9397374782303829,
        -0.25060877145140903,
        -0.6505077276647981,
        -0.011811389439156269,
        -0.18058062726778612,
        -1.008957344296979,
        -1.3181512483497813,
        -1.6388017192644926,
        0.8523812868712136,
        1.192743252850409,
        0.5732450442943111,
        1.7566603049820193,
        -0.29395886081833,
        -2.0319067500510988,
        -1.6040077153234524,
        0.6112883761415447,
        -0.29071559212308357,
        -0.6373560367591893,
        0.3412550727586478,
        0.9036664003230181,
        0.25448696655891934,
        -0.10834344296529526,
        0.9302877465072577,
        0.10184695476192795,
        0.2679816379311974,
        -1.3113071525881839,
        -1.8766935972023253,
        0.012257128845618354,
        0.04359400374198317,
        -0.3748208203251258,
        -0.36249621517896613,
        -0.936029202022563,
        -0.693728560711083,
        1.5930546700038202,
        -3.0567693423027866,
        0.6930644828204721,
        2.3088899083021617,
        -1.615050016373812,
        -0.5621373536348627,
        0.3830680142113609,
        -0.3691993736527069,
        0.5507023368240812,
        -0.549752519468037,
        -1.3906308891802246,
        0.3039216294775744,
        -0.6950737943868068,
        -0.768544976919082,
        0.27479065281281706,
        -0.9751041265584393,
        1.0500855857459166,
        -1.0224717000207568,
        -1.6873475978006227,
        -0.9680431999356941,
        0.5065781032093314,
        1.697420288865279,
        -1.2461809713875425,
        -2.5906126354498022,
        0.669597677402842,
        -0.4034194215001056,
        -1.0564557799753889,
        -0.9094483314384344,
        -0.28924644107558073,
        -0.7175319924439165,
        0.16295233362960362,
        0.9044366551536956,
        0.5545249504066586,
        -1.2402259880308555,
        0.8931214553810054,
        0.774034795129968,
        -3.322831147118619,
        0.5072172722310371,
        -1.2238689409720902,
        0.4869627761502503,
        1.9812857352142603,
        -1.4991628523865592,
        -0.21932838999024748,
        -0.967107498032779,
        -1.2241983455033485,
        0.3248117516168118,
        -0.3593463805195091,
        0.9699231669543593,
        0.48507356796580653,
        -2.0996648140915184,
        0.7533300106206479,
        -0.5829870108158351,
        -1.9935221970777812,
        -1.0805470864738618,
        0.7486789737451488,
        -1.1567401811350477,
        0.8861254038563174,
        -0.12373411896319933,
        -0.794291530398163,
        0.34119147426484114,
        0.4895249305979135,
        -0.07228607830066829,
        -1.8972573788173859,
        1.4282499643953999,
        0.9152544519195349,
        -0.8071555451561431,
        1.2566364398003889,
        -1.0113002087820668,
        -1.8686114116450976,
        -0.12000417217179823,
        1.3026926180454315,
        0.015751419374231048,
        -0.9514807436064074,
        0.9924787721300261,
        0.37697844003305236,
        -0.5064887788637622,
        -0.34457984479101217,
        0.4368102900919021,
        0.34555571585278777,
        -0.07479590654703783,
        0.2971197499158077,
        0.5017038321597181,
        0.7940176003822237,
        0.3048573167171724,
        0.4857073084272314,
        -1.9579631512898446,
        -0.6980454028458626,
        -0.2736921444698951,
        -0.3652785973143013,
        -1.378429238743671,
        0.4193345655232757,
        -0.5625296554228079,
        0.4693275279731256,
        -0.6250780823929314,
        -2.6018705704524656,
        0.6544871813494394,
        -0.17167115023747623,
        0.7119081912692575,
        -0.8144583722908855,
        2.0839251626367803,
        0.33390940771640426,
        -0.8424698549588362,
        -0.2656819920146012,
        -0.6598109006101581,
        1.6418751442703374,
        0.22699606974452774,
        0.1554967718291825,
        0.7157689935778564,
        -1.548932214498538,
        -1.1263199973156222,
        0.6237943936104545,
        -1.2687237054746048,
        -0.5371173400612489,
        -1.4267714399529876,
        -0.4024701764799555,
        0.08685780473592494,
        -1.349186642316032,
        0.8828637822210555,
        1.4439352198762683,
        -1.0131053913762702,
        -1.5208618269198062,
        -2.2430159787417376,
        -0.6025832196655612,
        -0.7983024892548478,
        -0.3215559905660403,
        -2.068414597525682,
        -1.080090551696698,
        -1.595554822529959,
        1.2880753182066393,
        -0.08841458577901425,
        -1.2008146665145432,
        0.6757809428086221,
        -1.6219147455437355,
        0.7093544575587607,
        -1.071018814795166,
        -0.2593478383491272,
        1.1256855571009503,
        -0.4426970805949484,
        -0.44167954171058604,
        0.7744945691267451,
        0.9431541147400273,
        -1.7039386568043917,
        0.41679259853610023,
        -1.8802128637223636,
        0.33237907490142654,
        -0.46476207199666153,
        1.8168252757904755,
        0.1127635814680426,
        -0.9676208904918141,
        -1.0179764594782352,
        0.4255506897385729,
        1.2810913223779437,
        -0.14179388602675247,
        1.03100212909489,
        -1.1050012444390178,
        -0.512808384573856,
        0.11084891120124385,
        0.8599137790846313,
        0.0019822921190503925,
        -1.5186501177929472,
        -0.39124297963189436,
        0.34352134861204675,
        -1.4647281920042083,
        0.530593700494852,
        0.8916146291775842,
        0.36908564966250074,
        -0.5735678903797141,
        -1.5782194984738833,
        0.7600167527485756,
        1.7907037991984185,
        -0.5298742135666842,
        -0.5041099187812134,
        -0.4621782637996433,
        0.45208348213500277,
        1.5101876329806063,
        0.6324451965267004,
        -1.109558350651303,
        1.3109117370611871,
        1.3609360417716485,
        0.7342229714055561,
        0.38427622567490166,
        1.7594465815632299,
        -1.4758046287601603,
        0.8943942888791139,
        0.8338519270469844,
        -1.8116689922423952,
        -2.6078275436947718,
        -1.078600374629314,
        -0.4190550457977879,
        -0.8241528551950753,
        0.26116504253665235,
        -0.8630690200951968,
        -1.2520812504090033,
        -1.5328701369277216,
        -3.0149484057864435,
        0.9695618239377686,
        0.4284516489650062,
        -2.587132102699173,
        -0.9091525110839264,
        0.017350432641148904,
        -0.1975866797786313,
        -0.5077672877447643,
        -2.318427176496323,
        -0.7735065923844713,
        1.0830886793338437,
        -1.3317553659505283,
        -0.48692616488434437,
        -0.02612114664682541,
        -0.45911948518778084,
        0.8262017233065044,
        2.195255286713004,
        -0.18072365287238507,
        -0.24248794732390788,
        -0.7784585722652388,
        -1.0221512526921097,
        -0.387359582845229,
        -0.01920120424366338,
        -0.20183335604166225,
        0.3647216693547483,
        -2.142035267191334,
        -1.2592039387593874,
        -0.6960520646133606,
        -1.2506175006052995,
        -0.45950402015920544,
        -0.3486832117445105,
        0.7127733892312801,
        -0.8405225060168536,
        0.13345048614700408,
        0.06340625582799227,
        0.17014337052888617,
        -0.833914580293233,
        -0.26778151370382364,
        0.33157074032055756,
        1.5878932895779525,
        0.8832016941716642,
        -0.6334793656544306,
        -0.5497089039664882,
        -0.11771860465838273,
        -0.05252711302309132,
        1.420200288062941,
        -0.09500082096860814,
        0.78116038450202,
        0.06413553954772067,
        1.219130983073547,
        0.36078340248623453,
        -0.40340558266852383,
        -0.000576367973266872,
        2.383835735861489,
        0.7185770722859913,
        -2.2929349844109264,
        -0.35871707238300987,
        -0.3915503260038989,
        -0.587422881261358,
        0.7411230332455796,
        -1.467089782669593,
        0.47613975166453376,
        -0.5016562914596769,
        1.5180196405524333,
        -0.30543653122126213,
        0.9670390612457311,
        -0.8420124596787851,
        -0.1715526878599461,
        -0.0005959057777809876,
        1.1892541536177057,
        0.6537489341892797,
        0.11598820588668222,
        -0.7169143560065417,
        -0.15689708779845438,
        -0.9383941282818656,
        -0.833262621336031,
        0.38289930773223874,
        0.06693875044266029,
        0.2008693511132275,
        -0.7452785421022298,
        0.0612516847680268,
        -0.5679291588412585,
        0.37048113124448045,
        1.521237274771016,
        -0.7809130129742271,
        0.7568318349617961,
        -1.6366406000698042,
        0.31675475867837405,
        -0.9599164448073941,
        0.36391010073401003,
        -1.4351642028561036,
        -1.1590400603987316,
        -0.3986284307392602,
        -1.541371991496743,
        0.2982804625874354,
        -1.3764159937260396,
        -0.24146682463348312,
        1.4627423890701488,
        0.2740482059651433,
        0.12194098103403496,
        1.8223288513025904,
        -0.04469178787927904,
        0.001861601155534177,
        0.930651336657769,
        0.5854732085039459,
        -0.01891594214938907,
        -2.4308639376878127,
        -0.1377541123708699,
        -0.8905509672051101,
        0.8792491892317061,
        0.8579293484170926,
        -0.5606590726873858,
        -2.415104975582182,
        -1.1400532137918744,
        -0.3262464426642817,
        -0.6651239914226111,
        1.029774440824586,
        -0.531692602420903,
        1.0844994573482116,
        0.21799350519920938,
        0.3060533691811865,
        0.26333984556579826,
        -0.5856675855049446,
        -0.036951418583039214,
        -0.3573350446814115,
        -1.3400751343382784,
        -1.874066415473514,
        0.07343878526585851,
        0.36984733421076926,
        0.015844933350534416,
        0.6937013042976086,
        0.03164105568141232,
        0.5959382039081271,
        -1.1612046241447154,
        -0.3875155972540115,
        -1.0769382413532131,
        -0.9118332721826684,
        0.5581732290033506,
        -0.043320320034072844,
        1.2967230367997673,
        0.5252229148669821,
        0.14545817369362576,
        0.33406953495443303,
        0.5803467478598906,
        0.8239066675180569,
        0.8305146046183851,
        -0.20747811888542628,
        0.32481174427536347,
        0.5087715465507252,
        -0.5972211314491714,
        -1.116681839178487,
        -1.213858245715631,
        0.1767060374066897,
        0.1250017965565636,
        -0.7837249693382009,
        -0.555410763295167,
        0.8976082193132517,
        0.29357172019562855,
        1.1694925419621942,
        -0.42303941103469606,
        -0.683902273652869,
        -0.4616255226468644,
        -0.44882924587178713,
        -1.6937764733533813,
        -0.003005912983800043,
        -0.5555605665582464,
        1.1777710617986732,
        -0.5291364081246028,
        -1.2734152977904194,
        0.05798421573051608,
        -0.8504329853973692,
        -0.6298382079992578,
        -1.0524300355519283,
        -0.1182436727608834,
        1.0200176272231636,
        0.890296588539521,
        0.3392234707089363,
        -1.270816627718055,
        0.7030247598616494,
        -0.10454813047012032,
        1.4906371902146003,
        -0.14565247150386715,
        0.47214819871378116,
        -1.794677720786687,
        -1.6045603775846875,
        -0.015606988492322218,
        -0.5986460194018098,
        0.8489610536343053,
        -0.22832393291329217,
        -0.22161680533803751,
        0.7797594327429846,
        0.9813522265230732,
        -0.3945064999898763,
        0.7335204293871914,
        -0.8738821667414568,
        -0.6286610114132574,
        -0.2770532915197829,
        0.5163011813608789,
        -0.2046768101146638,
        -1.188327439672093,
        -2.5088308813699443,
        -0.3984405553730201,
        1.026557521302458,
        0.8268017419127458,
        -0.8307200634993186,
        -0.34010954307591024,
        0.16890741346891738,
        -1.1206023171325747,
        1.6324457995449868,
        0.42461827310164385,
        -0.9860645707887491,
        0.7941726925528911,
        0.8436902050804239,
        -0.523778210344631,
        0.9608509154550755,
        0.5422109787369359,
        -0.5417298187559657,
        0.7976599245153309,
        -0.4138978289764819,
        -2.050194997508482,
        -2.7950400452038027,
        1.2048222877246872,
        0.4014156821088357,
        -1.5604042770813316,
        -1.018118991313941,
        -0.029410326017233104,
        0.6304024813549344,
        0.052578600153357226,
        1.138733397630409,
        -0.9262813402557306,
        -0.9738024250878049,
        -0.6585417634326708,
        0.6279604235639646,
        0.29747516133343277,
        1.7387468294183497,
        0.7075692834437923,
        -1.0910325678806856,
        -1.1186334647000484,
        0.03235306338690762,
        -1.2651693826043342,
        0.6574986119494204,
        0.3575214157847593,
        0.7737854785324992,
        0.5119444836893686,
        1.5693824632901208,
        -0.48843668587497263,
        -0.060353492135172195,
        -1.3568985615992706,
        -0.06907610220728606,
        -0.7046369163793729,
        -0.9708812595540727,
        -0.12635051859721336,
        0.5635332193950997,
        -1.0355311145945258,
        -0.8333315124932839,
        0.9119968094327211,
        -0.20423737765453936,
        0.1561636857712037,
        -1.2146343613322523,
        -1.8880698526967978,
        1.0701329582750327,
        -1.550399324180234,
        -0.6286303201041205,
        -1.719543753158525,
        0.2541413249305154,
        0.7314851629891508,
        -0.21335215036367355,
        -0.33211111295503803,
        -1.351333772204676,
        -0.9947917068709541,
        -1.4301923410511193,
        2.6394978899644586,
        -0.8424518817053381,
        -1.267487790869685,
        -0.0949607593798709,
        1.0147319840099205,
        -2.0080617038941244,
        -1.3296866689583586,
        -1.235612907907042,
        1.3381280372377482,
        -0.1422503709399979,
        -1.9089665556503101,
        -0.6361103547027759,
        -1.2964222875841875,
        -0.20192516588823883,
        -0.8047156608626418,
        -0.8284838915591499,
        0.5727883338945158,
        0.24082338772755232,
        -1.7335738931947617,
        1.4234759168817581,
        1.7267845627100695,
        -1.6782473484433156,
        -1.0111211545903138,
        -0.888155794242392,
        0.2912246688773718,
        0.39239362675072453,
        -1.3089795503155988,
        -0.21950535346841882,
        1.409142928983715,
        0.24598819006464964,
        -1.389892863871318,
        -0.4267563377053304,
        -0.7977394402297268,
        0.05148706063976051,
        0.35911038719105237,
        -0.06119008558065717,
        -0.6948351451740005,
        0.09606085763012175,
        -0.6972693581889441,
        -0.17327890457581904,
        0.1731303091051334,
        -0.5562670956693294,
        1.1553397880364251,
        0.030987306288379462,
        -0.9009233821590877,
        0.8397449148897189,
        -1.2698352347685165,
        -0.9486327403245854,
        0.6819444163806493,
        1.235980149445722,
        0.5893310283798429,
        0.4560664989065172,
        -0.019408196487026283,
        0.4828284008048518,
        0.2896245555882603,
        0.1469771077168799,
        0.02002508984878836,
        -0.33834241304472346,
        -0.5038291079153748,
        -0.6676480334435303,
        -1.9373614047771868,
        -0.6678237385483343,
        -0.9548502997853211,
        0.7548436453904933,
        -0.2621948382241945,
        -1.3752066768397875,
        0.932455098784791,
        -1.75963017229448,
        0.6792720555122824,
        0.3366927899457211,
        1.1927048394059816,
        0.9292943138901416,
        0.447815109620415,
        -1.0617877223168652,
        0.5747225439846407,
        -1.6382082966456701,
        -0.2917719205497383,
        1.4595051523188711,
        -0.9769835533718068,
        1.2992907083789402,
        -0.7075677607946071,
        0.29328907002051297,
        0.4130605129680349,
        -1.1451429418355468,
        1.1232073151666069,
        1.113269228674448,
        -0.9146361818807027,
        0.4888119292583822,
        0.23821436509269944,
        -0.3033499188360062,
        -0.39153129223621425,
        -1.0211701424318127,
        1.5122979828481382,
        0.17321708373863848,
        -0.08058634038159103,
        -0.045404568861564264,
        -0.9726006992144615,
        1.2015326887153461,
        -0.7490818463520895,
        0.49787555514089843,
        3.6095352434927688,
        -1.7437718973258416,
        0.23853234849784838,
        0.014599879904972362,
        -0.6930924047026785,
        0.5016346322490325,
        0.8669373520933568,
        0.6009762838445061
      ],
      [
        1.2134163002631015,
        0.3470533401267403,
        1.2847006251928512,
        0.390701021876511,
        1.020109007810766,
        1.101308758501357,
        -0.8379289650375289,
        0.146558115600322,
        0.17397442156842216,
        -0.9178576433062948,
        1.603214697272302,
        -0.49209215538194256,
        -1.6249021728236455,
        -0.0402957751845785,
        -0.13924508508401695,
        0.5566605773208909,
        0.9639548937898734,
        0.10357823041135504,
        -0.9767358916409915,
        -0.5428619309273179,
        -0.04673288646939088,
        -0.7745558032364303,
        0.6631893301710395,
        0.47165518538019585,
        1.4661912543828688,
        -0.11488526709981473,
        0.8821891665403092,
        -0.66846563959368,
        0.7848307785097307,
        2.8019907325005735,
        0.38758597946812456,
        -0.23220326922326964,
        -0.5661431968252338,
        -0.28999087265974255,
        0.5804581833783893,
        0.8290536527847739,
        1.7639370776955858,
        0.09987779538857984,
        0.9838028687160545,
        -0.2184812033460725,
        1.467920295531703,
        -0.6396889868960706,
        -0.9587647555893564,
        -0.5278249337244706,
        0.22443780080649517,
        1.1195227505097574,
        0.7787973983705376,
        -0.1813674817592733,
        0.7237927375593207,
        0.7059238614678639,
        -0.9331478185862301,
        -0.5618303210405465,
        -1.1621979306302055,
        0.3112260564414385,
        0.7333597327726177,
        0.3423264493090699,
        1.3132673189226722,
        -0.22921688209511556,
        -1.0033034322700787,
        0.9089279307287491,
        0.8696802455028746,
        0.7667425915510601,
        0.3395811768685847,
        0.41184914846862175,
        -1.3702603446913548,
        1.1507387083149163,
        1.5750350816333114,
        0.7393218979772729,
        -0.4396822690870507,
        0.2528634083155659,
        -0.19636815323874718,
        -0.30384290287014926,
        -2.4140651518555822,
        -1.4482088515950193,
        -1.9301534554439364,
        0.32126232648866127,
        -0.3929865481484213,
        -0.6893151624345064,
        0.017052686696079688,
        0.16625353389679434,
        0.6117207871982785,
        2.2535562238210374,
        -0.634159031661377,
        -0.16576668051982982,
        -1.8236030813149473,
        -0.20504704605089286,
        -0.34585044206739807,
        1.2460527424170478,
        -1.780832151452895,
        -0.578917954781719,
        1.952279386020461,
        0.35562506202832456,
        -0.46651399899123647,
        -0.6145801442361234,
        -0.5002491870155509,
        1.6920156819007883,
        0.2688004831269192,
        0.4365766485749045,
        -1.4158725112721113,
        -0.2115444931099133,
        1.0055127696043669,
        1.4836757345704386,
        0.3191961984833207,
        -0.4201093612827525,
        0.09984479164655448,
        -0.6152667823292721,
        1.7788440572200352,
        1.2946631256611238,
        1.5223829382205518,
        0.7589989525603241,
        0.33010893107860384,
        -2.129053266586969,
        -0.12302940552879173,
        -1.0777702065488148,
        -0.750449274973157,
        -0.48709392783666633,
        -1.8611965625942024,
        -0.627500660644014,
        -0.6462072328590016,
        2.183410734898872,
        1.064689980232674,
        -0.42982407675982726,
        0.9521699144843436,
        0.955763171649181,
        0.6627747004747405,
        -1.4150491874719757,
        0.8356517659044673,
        0.7089455772851481,
        0.14160936868473012,
        -0.20009605164469554,
        -1.2686851035751183,
        0.9675203396293818,
        -0.3871353286839467,
        -1.505059273640299,
        0.9639082318177865,
        -1.188267807632771,
        0.8927893207016517,
        2.1056583054287272,
        -1.8907315309857151,
        1.3895710378791462,
        0.2890311474236671,
        -1.9517006430643478,
        0.4310866498088457,
        -1.4257749079867743,
        1.230149379330104,
        1.1057091910805328,
        1.5343892666452288,
        1.5454781750777256,
        -0.4971996444443304,
        -0.5924769728427054,
        -2.91783139853945,
        1.1705184257348151,
        -0.34089519870372,
        -1.186943499577431,
        -2.5922918012321428,
        0.23894054407549034,
        0.7934082625141063,
        -0.19645426965010973,
        1.1543770776405584,
        -2.4816023837604226,
        0.20238754585628496,
        -0.4573110655639962,
        -0.2710298931391164,
        -0.18293326018595818,
        0.23059257527881175,
        0.5849736461928643,
        -1.038547083247995,
        -0.5016561020405733,
        1.2735005365222,
        0.8023842396807441,
        1.7287786157546476,
        1.2970078098669655,
        -0.17661943790126333,
        0.28242568656810546,
        -1.6478109701162904,
        0.6309227636824442,
        0.8061753063379711,
        0.8214832323264171,
        0.2695887118416227,
        -1.0382491588222658,
        0.41788484381170404,
        -1.3317530081619842,
        1.0029703562217351,
        -0.5948116479668111,
        -0.8774522049946047,
        0.35931362515901744,
        1.780307533896335,
        -1.0561872030837842,
        -2.5233421200004784,
        0.6887813288040077,
        -1.0806599278779554,
        -1.118763037240359,
        0.7315798238395599,
        -0.9831553818422782,
        0.525567651075728,
        -1.5006157048285065,
        -0.40450559254950036,
        0.4787032575533703,
        1.0441393460977104,
        1.2412816762800405,
        0.8280594898587752,
        -1.5660672984859005,
        0.573815340438265,
        0.2454033496595378,
        -0.417735457322451,
        -1.2261376552291825,
        -0.33728762131798384,
        0.766441192220361,
        -1.858016625149496,
        -0.026375150304226925,
        -0.7210691944753261,
        0.3759703145247955,
        0.43721883265682815,
        0.01149680838010727,
        -0.6476469644605484,
        -0.797998208145128,
        0.5149241344693731,
        -0.8307068634400167,
        -0.14381149286632297,
        -1.2797776467799626,
        -1.362999405422823,
        -1.6785516414918713,
        0.6534298630055909,
        1.3890387564164963,
        0.018872104953653254,
        -0.12346966562732552,
        -0.7767246831676506,
        -0.006027454335966687,
        1.4431090928561785,
        -0.23491781617199659,
        1.6142160574761033,
        -1.604112603520009,
        -1.3148628736078134,
        2.072472661641062,
        0.46315062094743026,
        0.04359275866574294,
        0.6509610284688101,
        1.6302692506138636,
        -0.14508793562885056,
        -0.32373438197218174,
        -1.1652813312483894,
        -0.6691899471487687,
        -0.45189902710366653,
        -0.22394480735453717,
        -0.2381217946894012,
        1.0584771211712158,
        0.19949645457037443,
        0.08078292190595289,
        -0.39678477043929095,
        0.4030581863358063,
        -1.3359474472847006,
        -0.014603428010235056,
        -0.49788759125543575,
        -0.5640370461291094,
        -2.593970446633829,
        -0.7848554859264116,
        1.423675106847023,
        0.33757073769349183,
        -0.6924720923182365,
        0.49467316943875883,
        -0.1281482867353656,
        -1.6394436404814279,
        -1.145093188517809,
        0.17015400486182675,
        0.20278224772415687,
        0.15469790391522573,
        -1.919351638278351,
        -2.177501747849764,
        0.549282100446459,
        -0.8194320441322355,
        1.991671165694262,
        0.259898071289536,
        0.07238089465936355,
        -0.4153490554717081,
        0.6538714257440884,
        -2.2831867671071984,
        -0.023154803518936708,
        -1.6497827788105441,
        0.21970034464249316,
        0.571954494234975,
        -0.18362919258791957,
        0.13260941453126987,
        0.33595317012644876,
        -0.3183807630443735,
        0.012485759448019022,
        -0.7117663099651564,
        -0.8573797659435246,
        -0.6706126382414886,
        0.4442981932316097,
        -1.277947704459553,
        1.3673566708560225,
        0.03950339634400638,
        0.4328934338454803,
        0.14461730341511211,
        1.236440062538738,
        -0.1620878533098061,
        -1.510222086518732,
        0.7069848462098836,
        0.12060125200133906,
        -0.1603824476117574,
        -0.027864278330154226,
        1.0433499168216458,
        -0.9078237963144681,
        2.215712005976489,
        1.3354016736496501,
        0.19647881816960805,
        -0.13090567853470944,
